GraphicEQ: 20 -6.6; 21 -6.7; 22 -6.8; 23 -7.0; 24 -7.2; 26 -7.5; 27 -7.7; 29 -8.0; 30 -8.2; 32 -8.4; 34 -8.6; 36 -8.8; 38 -8.9; 40 -9.1; 43 -9.2; 45 -9.3; 48 -9.4; 50 -9.4; 53 -9.5; 56 -9.5; 59 -9.5; 63 -9.6; 66 -9.7; 70 -9.8; 74 -9.8; 78 -9.9; 83 -9.9; 87 -9.8; 92 -9.7; 97 -9.5; 103 -9.3; 109 -9.0; 115 -8.8; 121 -8.5; 128 -8.3; 136 -8.2; 143 -8.0; 151 -7.9; 160 -7.7; 169 -7.5; 178 -7.2; 188 -7.0; 199 -6.7; 210 -6.4; 222 -6.0; 235 -5.5; 248 -5.1; 262 -4.8; 277 -4.5; 292 -4.4; 309 -3.9; 326 -3.4; 345 -3.6; 364 -4.2; 385 -4.8; 406 -5.4; 429 -6.0; 453 -6.6; 479 -7.3; 506 -7.9; 534 -8.5; 565 -8.9; 596 -9.2; 630 -9.4; 665 -9.5; 703 -9.5; 743 -9.5; 784 -9.4; 829 -9.3; 875 -9.2; 924 -9.0; 977 -8.9; 1032 -8.9; 1090 -8.9; 1151 -8.9; 1216 -8.6; 1284 -8.1; 1357 -7.5; 1433 -6.9; 1514 -6.4; 1599 -6.0; 1689 -5.6; 1784 -4.9; 1885 -4.2; 1991 -3.7; 2103 -3.3; 2221 -3.0; 2347 -2.7; 2479 -3.0; 2618 -3.4; 2766 -3.5; 2921 -3.7; 3086 -3.7; 3260 -3.0; 3443 -2.0; 3637 -1.3; 3842 -0.5; 4058 -0.2; 4287 -0.2; 4528 -0.5; 4783 -1.7; 5052 -3.2; 5337 -5.1; 5637 -6.1; 5955 -6.7; 6290 -8.5; 6644 -10.3; 7018 -10.1; 7414 -8.9; 7831 -8.3; 8272 -7.9; 8738 -7.6; 9230 -6.9; 9749 -6.0; 10298 -5.4; 10878 -5.3; 11490 -5.2; 12137 -5.1; 12821 -5.1; 13543 -5.1; 14305 -5.1; 15110 -5.1; 15961 -5.2; 16860 -5.3; 17809 -5.4; 18812 -5.5; 19871 -5.7